digraph Tree {
node [shape=box] ;
0 [label="name_name_mel <= 0.5289\ngini = 0.4978\nsamples = 15\nvalue = [7, 8]"] ;
1 [label="hourly_wage_hourly_wage_anm <= 0.884\ngini = 0.4444\nsamples = 9\nvalue = [6, 3]"] ;
0 -> 1 [labeldistance=2.5, labelangle=45, headlabel="True"] ;
2 [label="name_name_lev <= 13.5\ngini = 0.375\nsamples = 4\nvalue = [1, 3]"] ;
1 -> 2 ;
3 [label="gini = 0.0\nsamples = 2\nvalue = [0, 2]"] ;
2 -> 3 ;
4 [label="name_name_mel <= 0.3713\ngini = 0.5\nsamples = 2\nvalue = [1, 1]"] ;
2 -> 4 ;
5 [label="gini = 0.0\nsamples = 1\nvalue = [0, 1]"] ;
4 -> 5 ;
6 [label="gini = 0.0\nsamples = 1\nvalue = [1, 0]"] ;
4 -> 6 ;
7 [label="gini = 0.0\nsamples = 5\nvalue = [5, 0]"] ;
1 -> 7 ;
8 [label="name_name_jac_qgm_3_qgm_3 <= 0.3611\ngini = 0.2778\nsamples = 6\nvalue = [1, 5]"] ;
0 -> 8 [labeldistance=2.5, labelangle=-45, headlabel="False"] ;
9 [label="gini = 0.0\nsamples = 4\nvalue = [0, 4]"] ;
8 -> 9 ;
10 [label="name_name_sw <= 8.5\ngini = 0.5\nsamples = 2\nvalue = [1, 1]"] ;
8 -> 10 ;
11 [label="gini = 0.0\nsamples = 1\nvalue = [0, 1]"] ;
10 -> 11 ;
12 [label="gini = 0.0\nsamples = 1\nvalue = [1, 0]"] ;
10 -> 12 ;
}